{
  "HiddenLayers": [
    {
      "Neurons": [
        {
          "InputWeights": [
            -0.57395265156497688,
            -0.268495354460783,
            -0.37147092417416672,
            -0.11541130073154871,
            0.73164208500256867,
            -0.80626417687454455,
            -0.2986925837112091,
            0.060604183497188657,
            0.79707644125310528,
            -0.026172930852590537,
            -0.560345330070865,
            0.6176925728179945,
            0.45208618391868005,
            0.10883164966668962,
            -0.67204698018458464,
            -0.058268031636797391,
            -0.17134106873602703,
            0.029824716518551453,
            -0.67069854013188679,
            -0.10210834867419127,
            0.3025512002886046,
            -0.32888319777738451,
            -0.66172226968301562,
            0.42012648629961835,
            -0.976734222833409,
            -0.9549821950285613,
            -0.31562946704944106,
            0.90872449330460481,
            0.96082170119547361,
            -0.3131889055078797,
            0.3518913422487171,
            0.22826854289894394,
            -0.86149162606405638,
            -0.63166687154754386,
            -0.57582340090341089,
            0.51864466689131783,
            -0.71190780146419808,
            0.25848193513547019,
            0.94375016108661147,
            0.51648809710859112,
            -0.12657956194156489,
            -0.61965643443094476,
            0.45145034736021367,
            -0.24520779130350554,
            0.0030792918808874004,
            0.37632907570112117,
            -0.75971495206283979,
            0.15475397350088127,
            -0.48607744429812733,
            0.20545700589637331,
            -0.076111679173088267,
            0.742440450022567,
            -0.78961248313524413,
            -0.808893575244068,
            0.086551507509570413,
            0.75487567007303036,
            -0.60677308477776737,
            0.20840258952621493,
            -0.13867707789813966,
            0.68662428535007436,
            0.5093652901748964,
            -0.20741706446624419,
            0.099782485755273889,
            0.11026537402386127,
            0.621935886705589,
            0.21138650824546004,
            0.47918489808222581,
            0.08375407232664081,
            -0.31534330559460305,
            -0.1906892486188437,
            -0.34635697055834752,
            0.57018179255198365,
            0.086080747414335829,
            -0.18718002200208619,
            -0.9755224405816626,
            -0.077786996567318273,
            0.219670516485065,
            0.58348807263286429,
            -0.58295121642076353,
            -0.35306243705511203,
            0.8047332432884976,
            0.52961684915770058,
            0.39480207444617804,
            -0.24463519605092476,
            0.76292282331871,
            0.60945090447061268,
            0.017881026034187952,
            0.94740196089831152,
            0.28178162632488396,
            -0.33069909025876787,
            0.12541778120446323,
            0.079689464928876019,
            -0.60284130360452648,
            -0.74287455132384417,
            -0.99287775164055414,
            -0.91916257828872383,
            0.28056131519455219,
            -0.65881362212981165,
            0.13285887078370887,
            0.79169802413991908,
            0.89715196310152767,
            0.15654042803549736,
            -0.52989211333829689,
            0.70462199204342257,
            -0.44817721421962403,
            0.35371412231103228,
            -0.343632734857931,
            0.39757448296680914,
            -0.83336485413197658,
            -0.83565626839836649,
            -0.46479103120057552,
            -0.19025888607514213,
            -0.20864494108066189,
            -0.78561402754188236,
            0.88189120771451446,
            0.97974847535591025,
            0.39778081536627052,
            -0.65558232110938464,
            0.34734251823636886,
            -0.987515133579673,
            -0.80649445910490469,
            0.53178323645954062,
            0.80197373885876211,
            -0.98464161205374712,
            0.68389826301927059,
            0.57396557289440187,
            0.17304426792695729,
            -0.17101450247716477,
            -0.19427014106126103,
            0.94366541583340235,
            0.64167319245140542,
            -0.12149792627774178,
            -0.54935776710866391,
            -0.37464068125900274,
            -0.2502082502727121,
            -0.35180178116662147,
            0.05951487306628031,
            0.69018646656564075,
            -0.79645266443916618,
            -0.590788290945189,
            -0.046914876926185012,
            0.62030709237805892,
            0.78076706164552223,
            0.11743813725912405,
            -0.86590803927463966,
            -0.68432292455627586,
            -0.71166433491169645,
            -0.81722533439345058,
            -0.62476198493906543,
            -0.97262058833982246,
            -0.31693528441392355,
            -0.063844286560382671,
            -0.0061358888253377174,
            0.12041532382759319,
            0.59825858642319374,
            -0.63454510689090993,
            0.354661152657998,
            -0.54516592990838975,
            -0.97920736551191534,
            -0.022087474215190743,
            -0.81928343286665273,
            0.82742199584682963,
            -0.40812267813731357,
            -0.77700981193028718,
            -0.47731366268189612,
            0.65672097445610145,
            -0.64089021678378,
            -0.83399988659614177,
            0.46459365145517229,
            0.23368981258649835,
            -0.079769662152868515,
            0.70759286223485474,
            -0.85912963628889771,
            -0.061867958518587222,
            0.059402111644245296,
            -0.42679855181557452,
            0.75102028745889782,
            -0.31545890267343585,
            0.88127205664468733,
            0.36822665534032095,
            0.2856367682485963,
            -0.00971338957214296,
            -0.54621913102548991,
            -0.22159436825184842,
            0.2606718166580782,
            -0.29441525403067215,
            0.88469529346124487,
            0.33028614733578043,
            0.027172420214240552,
            -0.61558098661911653,
            0.29362196225926296,
            -0.39524777678950906,
            0.66944682699154634,
            0.2256696921208923,
            -0.7714853687336668,
            0.12566740960888689,
            0.028424152544142781,
            0.55776652021229567,
            -0.40525813884054485,
            -0.522635129277227,
            0.95656557602374648,
            -0.87766431572168713,
            -0.28181899048859577,
            0.14154515972736106,
            0.10714272894001922,
            -0.02454051179434566,
            -0.20473631940059994,
            -0.94430626853919974,
            -0.93904769624650319,
            0.024979683965905986,
            -0.3856420537224437,
            -0.329941678158426,
            -0.42647461783854851,
            -0.34746135622573282,
            0.69225543444011728,
            0.19043006266724205,
            0.37367109293482514,
            0.81352952444054394,
            -0.037613263199031029,
            0.81716156233814918,
            0.772064454701454,
            0.028839620982585006,
            0.13882767168298169,
            0.080162503784129341,
            0.94004866579239443,
            -0.68454324132816691,
            -0.96187184714643581,
            -0.084811479381890209,
            -0.29038819051111131,
            0.93373163749006338,
            0.54477202195638563,
            -0.80675812297158767,
            -0.91022366543957667,
            0.40386996832650518,
            0.41160561693720543,
            0.16321909842571439,
            -0.72800789630438922,
            0.31210642915897219,
            0.67113856040439612,
            -0.71488535556809929,
            0.910254227543737,
            0.82893749709417075,
            0.26926354622589704,
            -0.99787022180482932,
            0.770024378060252,
            -0.37644432317113763,
            -0.968757185602068,
            0.016919584494592285,
            0.53340743396376888,
            0.038058472137835059,
            0.75195961723351568,
            0.21485667599238981,
            -0.40465608218931848,
            -0.2224501803772854,
            -0.29472238240393028,
            -0.072288623320124479,
            -0.016500352471268603,
            0.63801334645029062,
            0.20148945945926591,
            -0.20832882737646241,
            -0.062696373098089092,
            0.88003100933602352,
            0.34602000035838104,
            -0.87285896043603728,
            0.48011245424946436,
            -0.5789799187453345,
            -0.41979326737465694,
            0.16961538421881944,
            0.24092461097436729,
            -0.47099046232154107,
            -0.081626811930225182,
            -0.93851485940048285,
            -0.85767323207233737,
            -0.32275552931320634,
            0.906909370804109,
            0.94312266090732333,
            0.7595469289333463,
            0.13664792724114425,
            0.31007756002780867,
            0.31643375282806746,
            -0.71583439521944991,
            0.021173080929158983,
            0.38175894144506378,
            0.67154025122506167,
            -0.81823547537269126,
            -0.670087580118292,
            0.59789426271259916,
            0.31221797740211915,
            -0.30142663085430738,
            -0.51613989767579449,
            -0.82032292120171579,
            -0.36606170550417061,
            -0.88941968134631721,
            -0.12055952188127427,
            0.34780389718147831,
            -0.96975076304694274,
            -0.51703794956065507,
            0.14213296013811552,
            -0.47802438888724907,
            0.348943629258102,
            -0.95668660054840327,
            -0.13835741698332577,
            0.77604437417921213,
            0.004424739982797841,
            -0.88032847388471647,
            0.690427989557925,
            0.072464772372928365,
            0.91803587823167765,
            -0.12941106446058986,
            -0.23788118805794162,
            0.16814532406326538,
            0.8468441317302251,
            -0.67206644509676194,
            0.88505787548932147,
            -0.49249143983622873,
            0.91613088441093216,
            -0.50173743304876006,
            0.674460910544359,
            0.94535873681411942,
            0.1501978382797724,
            -0.17686094484446477,
            0.26800681480991778,
            -0.52893635409219741,
            -0.24289490069393252,
            -0.65062096222487986,
            -0.7155572004729801,
            0.95087477137411058,
            0.26286266309414746,
            0.32946489210127095,
            0.87675484524547487,
            0.46028167871128706,
            -0.38251581035884774,
            -0.38532479578845091,
            0.96109168593664518,
            0.2730557181687111,
            0.42245965441255978,
            0.24507864019030676,
            -0.62270149589592916,
            0.55185116165907644,
            -0.50866699445658892,
            0.25744958793829226,
            0.67986455278353042,
            -0.55836344186136078,
            0.93645929600389488,
            0.31571246810047116,
            -0.66717762569029448,
            -0.69400401854387728,
            -0.77447169798642357,
            -0.62804913894265491,
            0.43168050809731062,
            0.53198373395882737,
            -0.19149179118776416,
            0.19678808670691703,
            0.37176556817850442,
            -0.4742164104564594,
            -0.22467224664836924,
            -0.60932450206328492,
            0.019116273266845767,
            -0.34477323682459271,
            0.83532246452557657,
            0.73955042361898282,
            0.80955113272647006,
            -0.41149309415788365,
            -0.0062250282333596117,
            0.30178899699442729,
            -0.44937475838203667,
            0.23214989916724724,
            -0.63316230140357022,
            -0.38799481135960823,
            0.085056305881141242,
            -0.32893912148725452,
            -0.8790272894932204,
            -0.87738707341583311,
            0.4540176290766223,
            0.89273081785614394,
            0.14325569315113873,
            -0.17365282669117232,
            -0.46544887968766652,
            0.44133004805133241,
            -0.9834964055400055,
            0.97841819690363185,
            0.7253149007166958,
            -0.1090962879511201,
            0.89784225173496579,
            -0.65507008935372379,
            -0.34798919522967819,
            0.42090615455920749,
            0.24299836816551046,
            0.43528232347404816,
            -0.50233887147440626,
            0.0317192439619128,
            -0.77409202364703766,
            0.72202651220513114,
            0.71649248884827488,
            -0.24823964165907342,
            0.44789217870621606,
            0.091361048405313575,
            0.44787116760803125,
            -0.36531710947242274,
            -0.23489780131505267,
            0.10068394122124709,
            0.93915289816696024,
            0.61349091760481667,
            0.28683312114204462,
            -0.2394722216684706,
            0.41087016546563637,
            -0.31424627097305979,
            0.742655275654178,
            0.47896718416198397,
            0.38247276008859638,
            0.94897033488854488,
            0.85619664460954259,
            0.57798118506864593,
            -0.36102317642613152,
            0.85710511357076935,
            -0.98570840504518387,
            -0.081407994294180663,
            -0.30941494357264249,
            -0.35121769532871977,
            -0.35027036270094769,
            0.12967718194502764,
            0.98911643586546028,
            -0.068468471555257482,
            -0.88566458897054245,
            -0.94665866823678724,
            -0.55483267732970132,
            -0.60103436907905938,
            -0.59385457730682079,
            -0.29772145550953888,
            -0.55516036693416115,
            -0.9481432839041305,
            0.37839380056678962,
            0.89973664518474261,
            -0.32396614295157833,
            -0.084365627414022773,
            -0.96087812876475942,
            -0.88826600465946792,
            0.60398906733158875,
            0.13728174375854368,
            -0.065881176337091715,
            0.96644622122188839,
            0.67847964491890378,
            0.76418631743463772,
            -0.94719003272369151,
            -0.45139576680943017,
            0.17543502206071235,
            -0.35213099931161823,
            0.083006589615953585,
            0.85934881670863084,
            -0.26256474166296639,
            -0.470723953706306,
            -0.59923315155391021,
            -0.20090534948960817,
            0.98497273785664274,
            0.63545039357433108,
            0.11159983687518764,
            0.00765424642502687,
            0.4991749347155357,
            0.23348330516062446,
            -0.68468564710842217,
            0.01180397926381987,
            -0.72056788603903044,
            0.040202376987137606,
            0.0339934399502047,
            0.33053012288801781,
            -0.42950015583283846,
            0.95642617142879627,
            -0.0979945092200835,
            0.72351470411554564,
            0.8181760741506976,
            0.902652593194081,
            0.31454939767953471,
            0.55319724293307637,
            0.71457800014506567,
            -0.31676746909137532,
            0.45115976312184269,
            -0.77510532785282071,
            -0.12130945600630227,
            0.5657088021123815,
            -0.1221025573135012,
            0.79730556826216825,
            0.31598320304659916,
            -0.45317500465582583,
            0.96487772476948808,
            0.91560464155409682,
            0.651133648064761,
            -0.42066120900580817,
            0.91478631126058363,
            0.040541021611599753,
            0.80391095109720612,
            0.031330149354950432,
            -0.38753610348423767,
            -0.6295364341236106,
            -0.17806331176886189,
            0.92232564057055755,
            0.68710229116477062,
            -0.361560505975961,
            -0.2696575164027693,
            -0.2776858163391358,
            0.97802367830455483,
            0.21890851490036262,
            0.745791610784535,
            0.35945155800803835,
            -0.95885817251359351,
            -0.16524773445945606,
            0.214698911278834,
            -0.15244966981467067,
            0.084509129037813518,
            0.30174856489933771,
            -0.81568062515433737,
            -0.1132635434060167,
            -0.87100698218748274,
            0.93349796729947643,
            -0.64437072890190672,
            -0.48193438256284665,
            0.69586202644211725,
            0.73258244323596777,
            0.0752249562537853,
            0.11828339659837719,
            0.67935337417989683,
            0.99118315061354245,
            -0.95831332026764759,
            0.86154411534376729,
            0.919729456725521,
            -0.21300329791839015,
            0.29028980647360775,
            -0.055923823556243618,
            -0.26882372584972969,
            0.79217059007575263,
            -0.0039197219284389309,
            -0.18730828144132011,
            0.49452722926768183,
            -0.843648292936679,
            0.58766285310856192,
            0.6589740240874441,
            -0.948491896232544,
            0.95654115336750067,
            -0.49428344668285618,
            0.13015990399475771,
            -0.29907371642468017,
            -0.19640821205563344,
            0.49483741474315979,
            -0.3869508812770498,
            -0.14377964597702422,
            -0.082881242672260658,
            -0.0977686884192456,
            -0.32111824425977115,
            -0.98516419996988847,
            -0.69605266062442261,
            -0.77343554028794,
            0.95463705492102913,
            0.56334159567135789,
            0.61217667595026615,
            0.043011872234986918,
            0.98681028678026783,
            0.17715515806574336,
            0.88419073126418191,
            0.43968943541385025,
            0.25412413453297955,
            0.54444092578853975,
            -0.72940009310625309,
            -0.88364537054842585,
            0.29232424348289737,
            -0.69433808358395954,
            0.37163738320063322,
            0.39224465293325117,
            0.97268206386556644,
            -0.654142801354836,
            -0.3033525041079686,
            -0.53347639158737259,
            0.7392777865212411,
            0.22681196166780415,
            0.944980196714465,
            -0.58274406323044559,
            -0.12429486681821483,
            -0.50362847416575673,
            0.42872774947382819,
            0.0054375985508987052,
            0.0027212159824378662,
            0.88486415819676889,
            -0.38851793916787836,
            -0.070736560814658067,
            -0.57279280772003383,
            0.56556970633812453,
            0.041411921794327636,
            0.24932694507087491,
            0.88233203164492935,
            0.11331820793847952,
            0.600829352438836,
            -0.518199652108846,
            -0.83269630056158561,
            -0.48315543142978484,
            0.25160014954810811,
            0.58575257489288979,
            -0.56962589669929309,
            -0.31272520665647913,
            -0.79748570965105214,
            -0.69264759252909069,
            0.48452387955090737,
            0.52480711179279926,
            -0.070523890692024374,
            -0.667038270320184,
            0.3181698157823723,
            0.837459907244576,
            -0.51263813020004367,
            -0.27208636385777973,
            0.61844035623412308,
            0.19498741848063877,
            -0.83264326478209616,
            0.49046302637318068,
            0.74843273732754656,
            -0.12125288830291262,
            -0.5630478159559027,
            0.36924104762611071,
            -0.067060413789571824,
            0.34131520549536087,
            0.68912738919683147,
            0.72673894706423359,
            0.26423854140167924,
            -0.87769664464464114,
            0.509916318713346,
            -0.14061106965394271,
            -0.25492744593530209,
            -0.78510677261590422,
            -0.70075226496443066,
            0.22243420493244229,
            0.97519170437292169,
            -0.64079767802286725,
            0.98685890373496,
            -0.81157788134630127,
            -0.70612977240927977,
            0.12141286493148511,
            0.52096819311568054,
            0.47797840685692666,
            -0.044550665006037687,
            -0.72142097770716673,
            0.61114697736409951,
            -0.41020824260212818,
            0.078239123466029514,
            -0.68648917883588945,
            0.630878564195142,
            -0.31267155680594977,
            -0.05405580264602515,
            -0.88965120955206423,
            -0.26664765145007874,
            0.28854578048388735,
            -0.920115789361352,
            0.88235340987259459,
            -0.34718727723883264,
            0.089070146029300454,
            -0.0018288727925125094,
            -0.52419120336070435,
            0.043145301104803795,
            0.36224241502863574,
            -0.98509618616218975,
            -0.9299025229232275,
            0.58789936668827036,
            0.10329180059590942,
            0.53823710788520118,
            0.26496615919407079,
            -0.24722330817159943,
            0.25930261790492615,
            0.20819243022064465,
            0.97899739485571924,
            0.19665252473986314,
            -0.37292349405655845,
            0.35781991026909526,
            -0.041007129240475948,
            -0.58620925019846748,
            -0.345649147920542,
            0.73015552372051817,
            0.099323772299155913,
            -0.35150954842172077,
            -0.049278562445788876,
            -0.50857994403158313,
            -0.17741585042536109,
            0.91344168207693632,
            -0.365278472874476,
            0.48153985920553044,
            0.010700909477053633,
            0.14254254713707909,
            -0.90718056804152358,
            0.706362349379866,
            -0.10224476749168542,
            0.19021576420469311,
            0.81802989317733354,
            -0.92175582001839862,
            -0.84127754125628051,
            0.46309817449018764,
            -0.11460366415515841,
            -0.309267777223644,
            -0.492087995183437,
            0.051611611157917139,
            0.813323678617528,
            0.56076924149984109,
            -0.62840862883775372,
            0.4791346281973915,
            -0.033061486042697742,
            -0.08631393226700726,
            -0.893732901666879,
            0.93072009176515058,
            0.12088775035035226,
            0.4685602194948868,
            0.99845995654872344,
            0.35891156203472352,
            0.8988403257159796,
            0.82730563244708333,
            -0.907597894832916,
            -0.12921298571076792,
            0.19226605078230108,
            -0.84341236631976957,
            -0.046900251800572168,
            0.62167148128064353,
            -0.47254310912073477,
            -0.87764597619605156,
            -0.34009117139508943,
            0.55291852911075512,
            -0.68956571297522751,
            -0.21121249413942445,
            0.37863176030625917,
            -0.45115869470244468,
            0.19910081939249832,
            0.49589038868755519,
            0.52838468408632677,
            0.96360457347449036,
            0.22223137849081642,
            -0.95229747503536788,
            -0.16483991443466575,
            0.38994814799630473,
            -0.88017318112783749,
            0.34344851474438265,
            -0.053497484444406607,
            0.72103434415582313,
            0.37526977310272674,
            0.07997509807612925,
            -0.97835409026797682,
            -0.37575382950694003,
            0.70788475495010128,
            0.53882385503420738,
            0.29135507676672068,
            0.99070441594980574,
            0.98582196913573217,
            0.28791771158189711,
            -0.72918214498471912,
            -0.27120476345504918,
            0.73761736639773234,
            -0.11377969136901774,
            -0.47586902189514285,
            0.69094483138995966,
            -0.099163243191321734,
            -0.18134810577122879,
            0.16868191373554362,
            -0.82186328523063268,
            0.53504489278484391,
            0.55742017904176389,
            -0.26838419272954772,
            0.62499541678698511,
            0.94017456003472888,
            -0.96514500582830287,
            -0.8633198299740068,
            0.85113782708120422,
            -0.0078542870505965423,
            -0.29754518736913088,
            -0.24903615241665555,
            0.84882621668772118,
            0.21010016317986852,
            0.23208727968779086,
            -0.75357171095328068,
            0.44751102409667254,
            -0.89926400383524074,
            -0.96431366970451093,
            0.84505102997463644,
            -0.22837719676428239,
            0.49743787515353677,
            0.38792506322679859,
            -0.43698862384029541,
            0.91117351808921476,
            0.22506304814369452,
            -0.20041869912984486,
            -0.77401956679071615,
            -0.66399402993917189,
            0.523568396234684,
            0.14421339293206725,
            -0.51088970318012383,
            0.30117446151616734
          ]
        },
        {
          "InputWeights": [
            -0.82518269846487158,
            -0.23163427749259136,
            -0.81401054925006378,
            0.81784963413041534,
            -0.65164051188698058,
            -0.60334868338114989,
            -0.31592640714530196,
            0.67303366012546872,
            0.40214950563486185,
            0.44022562421868816,
            -0.0014300025074882594,
            0.28338049505063356,
            -0.46303329964309614,
            -0.57799719889266687,
            0.51870391339990141,
            -0.49446311436516954,
            -0.36020339877555724,
            0.0766224009341665,
            0.59020979124596806,
            -0.13484943431562257,
            -0.026399868087097933,
            -0.60294163394856337,
            -0.31930175391924653,
            -0.85288060635928087,
            -0.005591412543128893,
            -0.17955783436985584,
            -0.60006770193579961,
            0.14059323777472277,
            0.80887455949973064,
            0.800674199965165,
            -0.67243056915347954,
            0.84793232001733609,
            -0.78665545852233443,
            0.449789480981319,
            0.67406000181755976,
            -0.55826531998204743,
            0.046098152601322537,
            -0.571420973327972,
            0.099152112757230362,
            0.70408529337215242,
            0.35161323685060419,
            -0.82798195116462447,
            0.36947381856725925,
            -0.94278749912363768,
            -0.61064493828676247,
            0.2796307757942087,
            0.37420654593863728,
            -0.19694001918822102,
            0.28087720884414369,
            0.7204434051551114,
            0.69620930427972272,
            -0.55305401414468691,
            0.55400360168609941,
            0.62395973113549852,
            -0.67242567039673484,
            0.77770802927096749,
            -0.91233252357334482,
            -0.9611299428907828,
            -0.17655895332645577,
            0.52791731360314187,
            0.99671901855464973,
            0.54348033768378323,
            0.86415909546598668,
            0.60147527740467288,
            0.11265593751252873,
            0.15063710356732887,
            0.07003492044763189,
            0.087175681002155433,
            -0.25205982904956903,
            0.076965465477399755,
            0.45943376245342826,
            -0.78878972331686392,
            0.97746090476596437,
            0.88611456386700582,
            0.5135281582430663,
            -0.1984253904709172,
            0.027578944832858828,
            -0.37651754320689107,
            0.75776237813416336,
            0.71477671559736133,
            0.44623500711781694,
            0.59687194436248669,
            0.85971584070532836,
            -0.911569017875739,
            -0.89553517005198413,
            0.880623435546003,
            -0.70607128166876332,
            -0.41061520922099576,
            0.12221514437142977,
            0.89635198861546661,
            -0.64593294254510447,
            0.0072281751420386255,
            0.60513822925531724,
            0.5712350766877,
            0.70736646622786081,
            0.80813195165612661,
            -0.692142986416639,
            0.76799460394355534,
            -0.055448325152761629,
            0.23870986911695177,
            -0.79041546331843937,
            -0.7129820732265576,
            -0.9448946151205142,
            -0.79610190846886353,
            -0.739001662881616,
            0.48498853596364161,
            -0.53052599863761485,
            0.66787885947975778,
            -0.88957732271777679,
            0.52599256263466343,
            -0.24987608318567198,
            0.46418213863518304,
            -0.718893834258846,
            0.10866355575093234,
            -0.91831790186386453,
            -0.600152978487384,
            0.68376459792964406,
            0.77572809763162631,
            0.49701004239819807,
            0.23203143523109349,
            -0.14329492859716511,
            -0.51935640926658444,
            0.9649493334716468,
            -0.14842799254080394,
            -0.27712167813087718,
            -0.54781793038701343,
            -0.39395349951894104,
            -0.59379803620249993,
            -0.8212677691873741,
            0.705394070356413,
            -0.50627767682672731,
            0.2595898791360523,
            0.67893576330753658,
            -0.48094559881896387,
            0.50519021035862233,
            0.15921231680205772,
            0.5417591804633054,
            0.655809800209611,
            0.82742657862059277,
            -0.38052716486108812,
            0.41114757648256961,
            -0.37395068973952472,
            -0.52103804774630724,
            0.59622236286595975,
            0.14622811811709774,
            -0.11011629825804588,
            -0.27388236290812562,
            -0.503533823031774,
            0.48953627857025517,
            0.30749245688844579,
            -0.87567054101647512,
            -0.46791917783758313,
            -0.729071200169089,
            0.71244759816837222,
            -0.618080800162927,
            0.72885297712549946,
            -0.67801151185974406,
            0.20347332297127771,
            0.48098126058956242,
            0.80879229308964751,
            -0.1210747038111805,
            -0.93673953385458619,
            0.48914211553559661,
            -0.59496229200106865,
            0.032283620943972781,
            0.49054577565771207,
            0.785255537789918,
            0.76206044901676662,
            0.60348120778961167,
            -0.077523404302784926,
            -0.14190749039030981,
            -0.97204326039487654,
            0.94830093718344743,
            -0.12246645873965856,
            0.82087550485149907,
            -0.769357692765024,
            -0.99833913442870525,
            -0.63130153881359075,
            0.70531302084440428,
            0.83296426219466813,
            0.72603592998610955,
            -0.89045213093875875,
            -0.083378301532695334,
            -0.12882260553012209,
            0.5809877100527846,
            0.96156594467490863,
            -0.011398825685106754,
            0.96643581262025746,
            -0.86291754192953962,
            0.77628686599659114,
            -0.16281887597153077,
            -0.661736748047351,
            -0.82517455031098463,
            -0.98135518549810774,
            0.74056487227155321,
            0.34790786924512862,
            0.13692751917786261,
            -0.92605737034513491,
            -0.43604829910425286,
            0.6556894312870053,
            0.10462995798896602,
            -0.035944456459298446,
            -0.10701777195431081,
            -0.43293926486958334,
            -0.55059256883039442,
            -0.90360686394874823,
            -0.41618076820698024,
            0.39346186210429696,
            0.89166959856652384,
            -0.84860614939612722,
            0.72730178737606765,
            0.9533754686804683,
            0.49820855131955338,
            0.64804506858333577,
            -0.91721851057412529,
            -0.23060175356099427,
            0.14665474192554007,
            -0.38202823741246278,
            -0.1759408265068951,
            0.070733513324575836,
            -0.49802494776833423,
            0.8188648073475836,
            0.62502904386743952,
            0.827244095508765,
            -0.91466126163895534,
            -0.4801353374329268,
            0.85315543864065124,
            0.92967128777283259,
            0.136976994905537,
            -0.52702572392443825,
            0.093727909452349378,
            0.9277455590025353,
            0.804798699899647,
            -0.95029486444818134,
            -0.27155189981780614,
            -0.23787079366995462,
            0.21674666508331553,
            -0.65025037313628853,
            -0.57805851637518424,
            0.48473010008923156,
            0.37784353653033526,
            0.59522607709879127,
            -0.925137494190692,
            0.98580347274111613,
            -0.95089234155941071,
            -0.11606888732738882,
            -0.15983605520011796,
            -0.47311849402830591,
            0.93596306941985941,
            -0.028733211571182693,
            -0.79864553804678884,
            -0.480954756058348,
            0.24995808006283912,
            0.493271830775083,
            0.15374748613142744,
            0.28578370749233506,
            0.339040277853699,
            0.06575242901433194,
            -0.51825538166887275,
            0.92958410360715771,
            -0.75669505037124762,
            -0.34575389867000311,
            -0.74339138399931481,
            0.41883433187820668,
            0.057807998316924118,
            0.79967621552293255,
            -0.85134022450126756,
            0.44854971733437538,
            -0.080381121622727064,
            0.32069368929303843,
            0.55274385762878064,
            -0.20295720462842443,
            -0.80380369324530732,
            0.339493710758378,
            0.693034497502099,
            -0.093120701691176061,
            0.74412544412015325,
            0.63934720089236607,
            0.77826237585892688,
            0.20152948662469292,
            0.67980061757781352,
            0.32634298375461918,
            0.99374499879734035,
            -0.83427304085996234,
            -0.72836839303961876,
            -0.42530661307539774,
            -0.322194246682223,
            -0.68844273131372924,
            -0.10399348002131531,
            0.44273557785394746,
            0.42316636134883512,
            -0.84894344643110753,
            0.86803861702121343,
            -0.50764533793394628,
            0.24139001349346062,
            -0.276454458223456,
            0.3385738065055453,
            -0.34397231947105983,
            -0.071943156254445542,
            -0.75046610975737915,
            -0.26461448576067537,
            0.3917094042008149,
            0.60733424115700541,
            -0.38465817495598525,
            0.41860477508430349,
            0.40440809834849145,
            -0.67702895132612928,
            0.91059613913438275,
            0.80035335807122943,
            -0.75304881275016344,
            0.54169960540175044,
            0.69970497558599209,
            0.28749286954090653,
            0.28021516281267816,
            -0.75021479233684141,
            -0.083028538359419438,
            -0.33947462870565015,
            -0.90908572126409459,
            0.14722408734403186,
            -0.51690090030164515,
            0.1218130934364122,
            0.83701848346981256,
            -0.44753825854439516,
            0.47682117052419665,
            0.89749760270440582,
            0.40170233670197647,
            -0.070953496099407182,
            0.70387486470480909,
            -0.901894262469189,
            -0.030551880619288756,
            0.56825358694823713,
            0.088081891648045654,
            -0.28867769180950481,
            0.528799779641385,
            -0.53374109361026412,
            -0.71177293208560533,
            0.719134342747151,
            0.37849851478541474,
            -0.25282886778128105,
            -0.1327661695822891,
            -0.74828103175554017,
            -0.23280009935543131,
            -0.48880624926037547,
            -0.35094873145827454,
            0.90104067568999791,
            0.72347192018506767,
            -0.13644242809147014,
            -0.41221962898273928,
            -0.75750833549586616,
            -0.67565397938081184,
            -0.93701544298089723,
            0.2476635689566703,
            0.50883298012322076,
            -0.55500392029801193,
            0.12772611360434347,
            -0.10169766772768736,
            -0.16088646675422283,
            -0.869669584948511,
            -0.28232088687251372,
            -0.9831767128859551,
            -0.5246217940444865,
            -0.38083210020926095,
            0.81260074887752565,
            -0.16896243538655048,
            -0.32117229885373089,
            -0.54627833214880828,
            -0.011559932160126154,
            0.758707500613648,
            -0.18604890680863165,
            0.96154459480741816,
            0.19782309278168186,
            0.28201316624062639,
            0.34373704279954526,
            -0.72000494452953556,
            -0.7686157055287548,
            -0.64539473523578073,
            0.32581491277414171,
            0.90343828533066062,
            0.57585263039426871,
            -0.82586895479642908,
            -0.46176552290451905,
            -0.65869566644920108,
            0.46132786890301969,
            0.773599270545892,
            -0.0937848457601258,
            -0.67969623257003109,
            0.57901734839262275,
            -0.7337782500079596,
            -0.59890509180114981,
            0.56803796267679529,
            0.44921855965980106,
            0.58892667136557708,
            -0.33905604368950443,
            -0.26954715013017283,
            -0.608079478893466,
            0.6325704992860649,
            -0.045406812953775223,
            0.68013704613428838,
            0.97020252487572778,
            0.447298168117964,
            -0.2649805950916006,
            0.10486178903981527,
            0.77387218363268917,
            -0.7189778335509166,
            0.12663804634504644,
            -0.21884949373034726,
            0.90414100381943963,
            0.22905017393295882,
            -0.78623991040155361,
            -0.22682720316156577,
            0.57240926308056084,
            -0.064525731809107992,
            -0.44582261035441295,
            -0.45676709935063176,
            0.47835169872008226,
            -0.86602048880926741,
            0.15787292869626327,
            -0.96091790445600112,
            0.92491160399901684,
            -0.6413702655409913,
            -0.12518165211989615,
            -0.2776817834366494,
            0.357678766063265,
            0.24593649190852343,
            -0.48768222180092013,
            0.60886748379039246,
            -0.3789616830470508,
            -0.38674668938043338,
            0.88805842303896954,
            -0.40116432701508492,
            0.40008935985420235,
            0.64581294462379746,
            0.93343947206668132,
            -0.87116328511426655,
            0.43941510876926571,
            0.43364743825565222,
            -0.43237143039091658,
            0.18041022856430464,
            -0.353063403279988,
            -0.87508794483886432,
            -0.58409925511599092,
            -0.65030449680171343,
            -0.94772233660512861,
            0.62787879775924882,
            0.99568368857929046,
            -0.48617903001155316,
            0.0348176947446862,
            -0.88220208065586314,
            0.25220177489061568,
            -0.74196860740984261,
            -0.5252392344126352,
            -0.08446508943937843,
            0.75521402039529384,
            0.6115340783128872,
            -0.42756038823934428,
            -0.98733791780242,
            0.74715913563554237,
            -0.4720540367559985,
            0.7687606360153173,
            0.51788155778327316,
            -0.83970247665558628,
            0.29116263800352882,
            0.34129435049880413,
            0.61520080797604315,
            0.37329326888846531,
            0.92673315101747267,
            0.0020657243696619418,
            -0.57474734404895045,
            0.10362380143174929,
            -0.95549834971323977,
            0.5662460134188253,
            0.97749101561725493,
            0.39223111302248193,
            0.80007518649379994,
            0.94278252104265,
            -0.47480744536251429,
            -0.32987285126711291,
            0.72987860242364855,
            0.25030825646638943,
            0.99851910296703883,
            -0.42596485714269888,
            -0.49680846989540811,
            0.3610029426884484,
            0.62998281393087985,
            -0.875959070079438,
            -0.515463875245312,
            0.89059771928016018,
            -0.678068294864581,
            0.55650716770213782,
            0.4269633840272174,
            0.6867436087130796,
            -0.960088765467971,
            0.41180964330764708,
            0.12916161831545289,
            0.96464127668739985,
            0.12467280340228849,
            0.0082625605948664551,
            -0.56305156700333581,
            -0.74543856898864125,
            -0.930970090136606,
            0.51185207244049946,
            -0.39036463572151164,
            0.014218647609107588,
            0.20775616008718847,
            -0.30814439829951396,
            -0.5026636288979387,
            0.52334890422942071,
            0.95515714753565084,
            0.66873390733148919,
            -0.95281351592628694,
            0.34247341950841548,
            -0.98276805765681341,
            0.27760820576452805,
            0.7702191189122477,
            -0.056184719394840862,
            0.65709474075650753,
            0.9302323455385042,
            0.7114827746182576,
            0.49136795149411833,
            -0.11108366619160481,
            -0.96378674807259135,
            -0.31984373262079357,
            -0.13128547616190742,
            0.67658021582134287,
            -0.64234446459022854,
            0.526276127575627,
            -0.43428163604416969,
            -0.73682603012875525,
            0.83553062124353672,
            -0.18183170308264599,
            0.516968452392539,
            -0.76677399256065626,
            0.47537146573813416,
            0.18132878149921483,
            -0.51329993715369193,
            0.96441348050455655,
            0.48895280854684581,
            -0.84682425354983915,
            -0.061948545237280474,
            0.62665285848624241,
            -0.038825165714022107,
            0.93545282530629381,
            -0.34678614059127344,
            0.50934880084273071,
            -0.91541382061666432,
            0.66967885593990018,
            -0.23752189959205464,
            0.6416899811754061,
            -0.81465055180880463,
            -0.69250038700067917,
            0.19436707299455255,
            0.29670219146945565,
            -0.0544813498128022,
            0.3656488472462382,
            -0.96710943610476519,
            -0.16820379917731979,
            0.74100037988827039,
            0.33768378289238959,
            -0.14986597201298266,
            0.16561960773996298,
            0.931662221836867,
            0.26021288580271085,
            -0.88034633157519526,
            -0.14942114080525004,
            -0.46980108324833925,
            0.10917295016052751,
            -0.45822958995719409,
            -0.90378460826843576,
            0.28351285951981764,
            -0.020547915572358376,
            -0.83178385016537626,
            0.77714389895896729,
            -0.22644205842978368,
            0.86487326472901593,
            0.92787750178865047,
            -0.89918036800916534,
            -0.97308089744746928,
            0.35929854609865569,
            0.59192804912083785,
            -0.31207030405516961,
            -0.23621502266947014,
            -0.07593185971149731,
            -0.92210282145091149,
            0.52810225899012153,
            0.62385220096760119,
            -0.7796992034160185,
            0.28773570095593087,
            -0.89024221935346992,
            0.14847650246158084,
            0.65493451993684393,
            -0.7765637765568556,
            -0.84871715025779515,
            0.30302806734853083,
            0.77236452460039351,
            0.69489268192376263,
            0.70087125009462015,
            0.81576404823149939,
            0.80266290866428625,
            -0.020776831705587494,
            -0.024498938429533931,
            0.12800651407773733,
            -0.33364026767691513,
            -0.64175503035083326,
            0.20592010848901168,
            -0.86073294173272952,
            0.41718978258751216,
            -0.47687962409163731,
            0.080640818670024067,
            0.437788865437929,
            0.93210828058478379,
            -0.19508300787410712,
            -0.61826827860329414,
            0.74578345823133241,
            -0.83777182356323776,
            -0.59814207882229142,
            0.0076230628792964038,
            0.18234364743453613,
            -0.4084257309447919,
            0.22674447745459486,
            -0.690088288442978,
            0.82143357414840545,
            -0.56803316133564508,
            -0.05234756967959911,
            0.628477412007004,
            -0.2440646815590645,
            -0.98310951970729554,
            -0.52589358792847329,
            0.0011967005842841729,
            -0.83001523065317018,
            -0.77299715643565436,
            -0.71494880574558028,
            -0.77575051614121671,
            -0.61992954429464031,
            -0.38357779335850906,
            0.55992377874937826,
            -0.90256932613575613,
            -0.43416936918347027,
            -0.12801806632415566,
            0.38883424682012763,
            -0.79333775977412,
            0.69719073716766677,
            -0.79289024858849455,
            -0.32801396782925574,
            0.21638791636256938,
            -0.14996367839629,
            0.84171911601057237,
            -0.594488146526035,
            0.14081127683899913,
            0.37051086095888358,
            -0.31274841013579829,
            -0.48151823887389367,
            0.22411666491001459,
            -0.42416501704199527,
            -0.33076963038015433,
            0.15399424745718054,
            -0.30402934213573241,
            0.71864165072072572,
            -0.27029357470026449,
            -0.55006781418496631,
            -0.87766089653469337,
            -0.056944597240122109,
            0.52190302953990264,
            -0.089356650675214574,
            0.21077301990237049,
            0.64704281570454758,
            -0.4193552721559371,
            -0.99836359873632852,
            0.12934529839186046,
            -0.39769811480073364,
            -0.69556755568860118,
            -0.55819703686246158,
            -0.68962722896644291,
            0.20275052413472472,
            0.020090313172009822,
            -0.38727182587015996,
            0.61433171026556765,
            0.75998945440645971,
            0.7312697762805711,
            -0.22156102153420143,
            -0.085797125967536456,
            0.61135827892231243,
            0.33327181350500051,
            0.63065780984600117,
            0.48270577887219057,
            0.70849509074045958,
            0.060911468140851147,
            0.64839905916796581,
            0.71082844219540475,
            0.4624099775588556,
            -0.13607113935827256,
            -0.6212357891301965,
            0.83609535315051686,
            -0.57798437266982539,
            0.26646066471011243,
            0.26357931295499631,
            -0.82472763488643641,
            0.29646536199690759,
            0.46121747285366788,
            0.56935304196088066,
            -0.7306001843941613,
            0.84008920278404342,
            0.27617116145611331,
            -0.46148702570306466,
            0.066082802680516584,
            -0.75454401792197112,
            -0.79187834995775186,
            -0.9786148930483386,
            0.55577168892489981,
            -0.94346239925977715,
            0.53970798980273138,
            -0.063965505850116636,
            0.98743141456684624,
            0.9513294377493825,
            0.535794547355311,
            -0.48896141806049487,
            0.60982526368447765,
            0.89126618692131288,
            0.427944135934142,
            0.50227949721749987,
            -0.41386948768455295,
            -0.067755607202900969,
            -0.70919049678500123,
            0.66694153272352841,
            0.73838377369682717,
            0.92568363902946482,
            -0.39427873873382657,
            0.8883682400319538,
            0.93629778800255725,
            0.75651606812910921,
            -0.562541706283829,
            -0.68213209960708965,
            -0.701226595650067,
            -0.838080577476919,
            -0.49095515387444388,
            0.074124092928735855,
            -0.66479721720547913,
            -0.20521967171565422,
            -0.43539864588603289,
            0.23727676680368307,
            0.50039945853589385,
            0.039550290211805506,
            -0.907349943204797,
            0.65431117644947245,
            0.922720499282263,
            0.92791283286130788,
            -0.60864547181722184,
            0.88479585192250876,
            -0.11374340268108547,
            -0.24454212447574836,
            0.65378673993410519,
            -0.71596540197548919,
            0.86854645873613689,
            0.95895811232999084,
            -0.01676390287413429,
            0.33716384011188705,
            0.54928496738396815,
            0.60923259966505339,
            -0.19986936133348821,
            0.1403996959051117,
            0.639734773728873,
            -0.68024644427012948,
            -0.91491264566542241,
            0.79925480099172941,
            0.61907520869686916,
            0.22183034585296413,
            -0.36275586691241624,
            0.825485681132181,
            0.44224984385813065,
            -0.53836944974937573,
            -0.82420192256758729,
            -0.18498668737045684,
            0.32664184303428551,
            -0.80934939603105382,
            -0.99812719695735763,
            0.54658469804566634,
            -0.16039330238497887,
            -0.36348779465186731,
            0.74423453302553022,
            0.81048293106662816,
            0.53433940627382381,
            -0.27906664147929594,
            0.0021168231042645314,
            0.18084324206264846,
            -0.89726877952798678,
            -0.84657550409742421
          ]
        }
      ]
    },
    {
      "Neurons": [
        {
          "InputWeights": [
            -0.55210931265560625,
            -0.66158063206247253,
            0.17879701342015084
          ]
        },
        {
          "InputWeights": [
            0.17037544316244932,
            0.52254471566811289,
            -0.27314402659296283
          ]
        }
      ]
    },
    {
      "Neurons": [
        {
          "InputWeights": [
            0.9807278549987144,
            0.42096484819264846,
            0.58828663813891457
          ]
        },
        {
          "InputWeights": [
            0.17872104491819985,
            -0.046922033525211744,
            -0.706910630083447
          ]
        }
      ]
    },
    {
      "Neurons": [
        {
          "InputWeights": [
            -0.86007845436640307,
            -0.2136286015041689,
            0.33393716656241024
          ]
        },
        {
          "InputWeights": [
            -0.36092553903931224,
            -0.49790360933313765,
            -0.54379294171232984
          ]
        }
      ]
    },
    {
      "Neurons": [
        {
          "InputWeights": [
            0.54096212702286273,
            0.090285568795714491,
            0.19421287431040474
          ]
        },
        {
          "InputWeights": [
            1.1346623219512682,
            1.0789478792363085,
            0.55389837679754628
          ]
        }
      ]
    }
  ],
  "OutputLayer": {
    "Neurons": [
      {
        "InputWeights": [
          -1.7138181499939347,
          -0.67804435078398562,
          -0.043271870698859419
        ]
      },
      {
        "InputWeights": [
          -1.2401216162769706,
          0.0036411280429751751,
          -1.0021355834077113
        ]
      },
      {
        "InputWeights": [
          -1.2375345218690679,
          -0.8476160011998175,
          -0.46458044123500541
        ]
      },
      {
        "InputWeights": [
          -0.51526649190552254,
          -0.69288487457585768,
          -1.4313716055953065
        ]
      },
      {
        "InputWeights": [
          -1.0329960545881007,
          -1.0552148251861853,
          -0.56941339987806561
        ]
      },
      {
        "InputWeights": [
          -1.2956756477305902,
          -1.0269166784490229,
          -0.40282414729627519
        ]
      },
      {
        "InputWeights": [
          -1.1330258307505148,
          -0.54380469133686293,
          -0.95656067290544877
        ]
      },
      {
        "InputWeights": [
          -1.222334585132381,
          -0.77030012191632868,
          -0.530768953581371
        ]
      },
      {
        "InputWeights": [
          -1.0794714898838893,
          -0.32797154752144869,
          -1.1712731981462135
        ]
      },
      {
        "InputWeights": [
          -1.3213562194209334,
          -0.83733294198067643,
          -0.40848104167181293
        ]
      }
    ]
  }
}